{
  "input_nodes": 5,
  "hidden_nodes": 8,
  "output_nodes": 2,
  "weights_ih": {
    "rows": 8,
    "cols": 5,
    "data": [
      [
        -0.7483587247318382,
        -0.45020476131637577,
        1.0152865253500787,
        -0.8669498764969862,
        0.8338530338799003
      ],
      [
        0.3978263180963651,
        0.11482114815827887,
        -0.49154127109827483,
        -0.8781445537038102,
        -0.8330399547703752
      ],
      [
        0.016239583713632003,
        -0.9012226493794578,
        0.027532580953080643,
        0.8290400435040175,
        0.11557982508086351
      ],
      [
        0.30106396343164965,
        0.9476246342272661,
        0.8814620130646897,
        0.698570931630242,
        -0.3005167641648059
      ],
      [
        -0.4131446012831512,
        -0.2218138290700291,
        0.5625683594775975,
        -0.5006758802826097,
        0.904308309002825
      ],
      [
        -0.5534090224704615,
        0.7360480847052425,
        -0.5639937389072425,
        -0.31904001186807107,
        -0.10379972172050193
      ],
      [
        0.10232178560451222,
        -0.5947709469195059,
        -0.5431621405929495,
        -0.7552253751264837,
        -0.45232255774111424
      ],
      [
        -0.3251922056228951,
        0.04613333513068181,
        -0.8418956532489786,
        0.6491912110155613,
        -0.7176305593332166
      ]
    ]
  },
  "weights_ho": {
    "rows": 2,
    "cols": 8,
    "data": [
      [
        0.45866574160752477,
        0.9453684488960253,
        -0.7400247025987021,
        0.8940112297420717,
        -0.6436576953793534,
        0.7120341428807087,
        -0.30086764001739374,
        -0.5668898745139375
      ],
      [
        0.4817650942324031,
        -0.6820634100122841,
        0.7149257534588092,
        -0.2997630758050612,
        0.4938743593499364,
        0.13723618309455488,
        -0.4222790179390524,
        0.768093490652197
      ]
    ]
  },
  "bias_h": {
    "rows": 8,
    "cols": 1,
    "data": [
      [
        0.43819897263337476
      ],
      [
        -0.7527133538555963
      ],
      [
        -0.6361015805074093
      ],
      [
        0.7662751256956812
      ],
      [
        0.842968023758468
      ],
      [
        0.8621953806999452
      ],
      [
        -1.0401698161461335
      ],
      [
        -0.3114916792707629
      ]
    ]
  },
  "bias_o": {
    "rows": 2,
    "cols": 1,
    "data": [
      [
        0.5425914698359335
      ],
      [
        0.4867312746580537
      ]
    ]
  },
  "learning_rate": 0.1,
  "activation_function": {}
}
